{"learner":{"attributes":{},"feature_names":[],"feature_types":[],"gradient_booster":{"model":{"cats":{"enc":[],"feature_segments":[],"sorted_idx":[]},"gbtree_model_param":{"num_parallel_tree":"1","num_trees":"100"},"iteration_indptr":[0,1,2,3,4,5,6,7,8,9,10,11,12,13,14,15,16,17,18,19,20,21,22,23,24,25,26,27,28,29,30,31,32,33,34,35,36,37,38,39,40,41,42,43,44,45,46,47,48,49,50,51,52,53,54,55,56,57,58,59,60,61,62,63,64,65,66,67,68,69,70,71,72,73,74,75,76,77,78,79,80,81,82,83,84,85,86,87,88,89,90,91,92,93,94,95,96,97,98,99,100],"tree_info":[0,0,0,0,0,0,0,0,0,0,0,0,0,0,0,0,0,0,0,0,0,0,0,0,0,0,0,0,0,0,0,0,0,0,0,0,0,0,0,0,0,0,0,0,0,0,0,0,0,0,0,0,0,0,0,0,0,0,0,0,0,0,0,0,0,0,0,0,0,0,0,0,0,0,0,0,0,0,0,0,0,0,0,0,0,0,0,0,0,0,0,0,0,0,0,0,0,0,0,0],"trees":[{"base_weights":[1.0500818E-7,-1.4039555E0,3.3555028E-1,-1.4123976E-1,1.0232005E-2],"categories":[],"categories_nodes":[],"categories_segments":[],"categories_sizes":[],"default_left":[0,0,0,0,0],"id":0,"left_children":[1,3,-1,-1,-1],"loss_changes":[1.5770464E3,3.1457214E0,0E0,0E0,0E0],"parents":[2147483647,0,0,1,1],"right_children":[2,4,-1,-1,-1],"split_conditions":[5.0658315E-1,4.932678E-1,3.3555028E-1,-1.4123976E-1,1.0232005E-2],"split_indices":[0,0,0,0,0],"split_type":[0,0,0,0,0],"sum_hessian":[3.3276E2,2.3501175E2,9.774825E1,2.337639E2,1.24785E0],"tree_param":{"num_deleted":"0","num_feature":"2","num_nodes":"5","size_leaf_vector":"1"}},{"base_weights":[-8.594527E-3,-1.3485066E0,2.684075E-1,-1.3571465E-1,9.640426E-3],"categories":[],"categories_nodes":[],"categories_segments":[],"categories_sizes":[],"default_left":[0,0,0,0,0],"id":1,"left_children":[1,3,-1,-1,-1],"loss_changes":[1.1993898E3,2.901886E0,0E0,0E0,0E0],"parents":[2147483647,0,0,1,1],"right_children":[2,4,-1,-1,-1],"split_conditions":[5.0658315E-1,4.932678E-1,2.684075E-1,-1.3571465E-1,9.640426E-3],"split_indices":[0,0,0,0,0],"split_type":[0,0,0,0,0],"sum_hessian":[3.3042746E2,2.2096915E2,1.0945832E2,2.1971608E2,1.2530684E0],"tree_param":{"num_deleted":"0","num_feature":"2","num_nodes":"5","size_leaf_vector":"1"}},{"base_weights":[-1.3184786E-2,-1.3019114E0,2.2865765E-1,-1.3108356E-1,9.083507E-3],"categories":[],"categories_nodes":[],"categories_segments":[],"categories_sizes":[],"default_left":[0,0,0,0,0],"id":2,"left_children":[1,3,-1,-1,-1],"loss_changes":[9.608114E2,2.701355E0,0E0,0E0,0E0],"parents":[2147483647,0,0,1,1],"right_children":[2,4,-1,-1,-1],"split_conditions":[5.0658315E-1,4.932678E-1,2.2865765E-1,-1.3108356E-1,9.083507E-3],"split_indices":[0,0,0,0,0],"split_type":[0,0,0,0,0],"sum_hessian":[3.2218185E2,2.0675539E2,1.1542646E2,2.0549742E2,1.2579551E0],"tree_param":{"num_deleted":"0","num_feature":"2","num_nodes":"5","size_leaf_vector":"1"}},{"base_weights":[-1.5873007E-2,-1.2623104E0,2.0221458E-1,-1.2715997E-1,8.559181E-3],"categories":[],"categories_nodes":[],"categories_segments":[],"categories_sizes":[],"default_left":[0,0,0,0,0],"id":3,"left_children":[1,3,-1,-1,-1],"loss_changes":[7.929003E2,2.533844E0,0E0,0E0,0E0],"parents":[2147483647,0,0,1,1],"right_children":[2,4,-1,-1,-1],"split_conditions":[5.0658315E-1,4.932678E-1,2.0221458E-1,-1.2715997E-1,8.559181E-3],"split_indices":[0,0,0,0,0],"split_type":[0,0,0,0,0],"sum_hessian":[3.1012836E2,1.9267212E2,1.1745624E2,1.9140959E2,1.2625316E0],"tree_param":{"num_deleted":"0","num_feature":"2","num_nodes":"5","size_leaf_vector":"1"}},{"base_weights":[-1.7531058E-2,-1.2283181E0,1.8333675E-1,-1.2380506E-1,8.065476E-3],"categories":[],"categories_nodes":[],"categories_segments":[],"categories_sizes":[],"default_left":[0,0,0,0,0],"id":4,"left_children":[1,3,-1,-1,-1],"loss_changes":[6.670664E2,2.3921509E0,0E0,0E0,0E0],"parents":[2147483647,0,0,1,1],"right_children":[2,4,-1,-1,-1],"split_conditions":[5.0658315E-1,4.932678E-1,1.8333675E-1,-1.2380506E-1,8.065476E-3],"split_indices":[0,0,0,0,0],"split_type":[0,0,0,0,0],"sum_hessian":[2.9565393E2,1.7893672E2,1.167172E2,1.776699E2,1.266819E0],"tree_param":{"num_deleted":"0","num_feature":"2","num_nodes":"5","size_leaf_vector":"1"}},{"base_weights":[-1.8583711E-2,-1.1988803E0,1.692007E-1,-1.2091334E-1,7.6005408E-3],"categories":[],"categories_nodes":[],"categories_segments":[],"categories_sizes":[],"default_left":[0,0,0,0,0],"id":5,"left_children":[1,3,-1,-1,-1],"loss_changes":[5.688346E2,2.2709503E0,0E0,0E0,0E0],"parents":[2147483647,0,0,1,1],"right_children":[2,4,-1,-1,-1],"split_conditions":[5.0658315E-1,4.932678E-1,1.692007E-1,-1.2091334E-1,7.6005408E-3],"split_indices":[0,0,0,0,0],"split_type":[0,0,0,0,0],"sum_hessian":[2.7973544E2,1.6570157E2,1.1403387E2,1.6443074E2,1.2708366E0],"tree_param":{"num_deleted":"0","num_feature":"2","num_nodes":"5","size_leaf_vector":"1"}},{"base_weights":[-1.9260101E-2,-1.1731782E0,1.5824322E-1,-1.184031E-1,7.1626822E-3],"categories":[],"categories_nodes":[],"categories_segments":[],"categories_sizes":[],"default_left":[0,0,0,0,0],"id":6,"left_children":[1,3,-1,-1,-1],"loss_changes":[4.8993173E2,2.1662598E0,0E0,0E0,0E0],"parents":[2147483647,0,0,1,1],"right_children":[2,4,-1,-1,-1],"split_conditions":[5.0658315E-1,4.932678E-1,1.5824322E-1,-1.184031E-1,7.1626822E-3],"split_indices":[0,0,0,0,0],"split_type":[0,0,0,0,0],"sum_hessian":[2.630783E2,1.5306918E2,1.10009125E2,1.5179457E2,1.2746019E0],"tree_param":{"num_deleted":"0","num_feature":"2","num_nodes":"5","size_leaf_vector":"1"}},{"base_weights":[-1.9692022E-2,-1.1505655E0,1.4952402E-1,-1.1621E-1,6.750283E-3],"categories":[],"categories_nodes":[],"categories_segments":[],"categories_sizes":[],"default_left":[0,0,0,0,0],"id":7,"left_children":[1,3,-1,-1,-1],"loss_changes":[4.252144E2,2.0749817E0,0E0,0E0,0E0],"parents":[2147483647,0,0,1,1],"right_children":[2,4,-1,-1,-1],"split_conditions":[5.0658315E-1,4.932678E-1,1.4952402E-1,-1.1621E-1,6.750283E-3],"split_indices":[0,0,0,0,0],"split_type":[0,0,0,0,0],"sum_hessian":[2.4619524E2,1.4110388E2,1.05091354E2,1.3982574E2,1.2781318E0],"tree_param":{"num_deleted":"0","num_feature":"2","num_nodes":"5","size_leaf_vector":"1"}},{"base_weights":[-1.996048E-2,-1.1305234E0,1.4244129E-1,-1.1428255E-1,6.3618207E-3],"categories":[],"categories_nodes":[],"categories_segments":[],"categories_sizes":[],"default_left":[0,0,0,0,0],"id":8,"left_children":[1,3,-1,-1,-1],"loss_changes":[3.7127924E2,1.9947968E0,0E0,0E0,0E0],"parents":[2147483647,0,0,1,1],"right_children":[2,4,-1,-1,-1],"split_conditions":[5.0658315E-1,4.932678E-1,1.4244129E-1,-1.1428255E-1,6.3618207E-3],"split_indices":[0,0,0,0,0],"split_type":[0,0,0,0,0],"sum_hessian":[2.2945718E2,1.2984108E2,9.961611E1,1.2855963E2,1.2814419E0],"tree_param":{"num_deleted":"0","num_feature":"2","num_nodes":"5","size_leaf_vector":"1"}},{"base_weights":[-2.0115487E-2,-1.1126305E0,1.3659114E-1,-1.12579085E-1,5.9958994E-3],"categories":[],"categories_nodes":[],"categories_segments":[],"categories_sizes":[],"default_left":[0,0,0,0,0],"id":9,"left_children":[1,3,-1,-1,-1],"loss_changes":[3.2576553E2,1.9238434E0,0E0,0E0,0E0],"parents":[2147483647,0,0,1,1],"right_children":[2,4,-1,-1,-1],"split_conditions":[5.0658315E-1,4.932678E-1,1.3659114E-1,-1.12579085E-1,5.9958994E-3],"split_indices":[0,0,0,0,0],"split_type":[0,0,0,0,0],"sum_hessian":[2.1312889E2,1.1929424E2,9.3834656E1,1.180097E2,1.2845464E0],"tree_param":{"num_deleted":"0","num_feature":"2","num_nodes":"5","size_leaf_vector":"1"}},{"base_weights":[-2.0190505E-2,-1.0965388E0,1.3169162E-1,-1.1106541E-1,5.651174E-3],"categories":[],"categories_nodes":[],"categories_segments":[],"categories_sizes":[],"default_left":[0,0,0,0,0],"id":10,"left_children":[1,3,-1,-1,-1],"loss_changes":[2.869721E2,1.8605957E0,0E0,0E0,0E0],"parents":[2147483647,0,0,1,1],"right_children":[2,4,-1,-1,-1],"split_conditions":[5.0658315E-1,4.932678E-1,1.3169162E-1,-1.1106541E-1,5.651174E-3],"split_indices":[0,0,0,0,0],"split_type":[0,0,0,0,0],"sum_hessian":[1.973946E2,1.094606E2,8.793401E1,1.0817314E2,1.2874589E0],"tree_param":{"num_deleted":"0","num_feature":"2","num_nodes":"5","size_leaf_vector":"1"}},{"base_weights":[-2.020794E-2,-1.0971321E-1,1.2573333E0,5.326414E-3,1.2753968E-1],"categories":[],"categories_nodes":[],"categories_segments":[],"categories_sizes":[],"default_left":[0,0,0,0,0],"id":11,"left_children":[1,-1,3,-1,-1],"loss_changes":[2.5367322E2,0E0,1.7664795E0,0E0,0E0],"parents":[2147483647,0,0,2,2],"right_children":[2,-1,4,-1,-1],"split_conditions":[4.932678E-1,-1.0971321E-1,5.0658315E-1,5.326414E-3,1.2753968E-1],"split_indices":[0,0,0,0,0],"split_type":[0,0,0,0,0],"sum_hessian":[1.8237769E2,9.90354E1,8.3342285E1,1.2901917E0,8.205209E1],"tree_param":{"num_deleted":"0","num_feature":"2","num_nodes":"5","size_leaf_vector":"1"}},{"base_weights":[-2.0182392E-2,-1.08498715E-1,1.2209188E0,5.0204196E-3,1.2398509E-1],"categories":[],"categories_nodes":[],"categories_segments":[],"categories_sizes":[],"default_left":[0,0,0,0,0],"id":12,"left_children":[1,-1,3,-1,-1],"loss_changes":[2.2486826E2,0E0,1.679451E0,0E0,0E0],"parents":[2147483647,0,0,2,2],"right_children":[2,-1,4,-1,-1],"split_conditions":[4.932678E-1,-1.08498715E-1,5.0658315E-1,5.0204196E-3,1.2398509E-1],"split_indices":[0,0,0,0,0],"split_type":[0,0,0,0,0],"sum_hessian":[1.6815508E2,9.057333E1,7.758175E1,1.2927563E0,7.6288994E1],"tree_param":{"num_deleted":"0","num_feature":"2","num_nodes":"5","size_leaf_vector":"1"}},{"base_weights":[-2.012425E-2,-1.0740184E-1,1.1891792E0,4.7321147E-3,1.209141E-1],"categories":[],"categories_nodes":[],"categories_segments":[],"categories_sizes":[],"default_left":[0,0,0,0,0],"id":13,"left_children":[1,-1,3,-1,-1],"loss_changes":[1.9980124E2,0E0,1.6069641E0,0E0,0E0],"parents":[2147483647,0,0,2,2],"right_children":[2,-1,4,-1,-1],"split_conditions":[4.932678E-1,-1.0740184E-1,5.0658315E-1,4.7321147E-3,1.209141E-1],"split_indices":[0,0,0,0,0],"split_type":[0,0,0,0,0],"sum_hessian":[1.5476894E2,8.275808E1,7.201085E1,1.2951641E0,7.071568E1],"tree_param":{"num_deleted":"0","num_feature":"2","num_nodes":"5","size_leaf_vector":"1"}},{"base_weights":[-2.0040948E-2,-1.06405415E-1,1.1612357E0,4.460452E-3,1.1823886E-1],"categories":[],"categories_nodes":[],"categories_segments":[],"categories_sizes":[],"default_left":[0,0,0,0,0],"id":14,"left_children":[1,-1,3,-1,-1],"loss_changes":[1.778829E2,0E0,1.5458145E0,0E0,0E0],"parents":[2147483647,0,0,2,2],"right_children":[2,-1,4,-1,-1],"split_conditions":[4.932678E-1,-1.06405415E-1,5.0658315E-1,4.460452E-3,1.1823886E-1],"split_indices":[0,0,0,0,0],"split_type":[0,0,0,0,0],"sum_hessian":[1.4223506E2,7.5556984E1,6.667808E1,1.2974247E0,6.538065E1],"tree_param":{"num_deleted":"0","num_feature":"2","num_nodes":"5","size_leaf_vector":"1"}},{"base_weights":[-1.9937865E-2,-1.0549463E-1,1.1363945E0,4.2044627E-3,1.158903E-1],"categories":[],"categories_nodes":[],"categories_segments":[],"categories_sizes":[],"default_left":[0,0,0,0,0],"id":15,"left_children":[1,-1,3,-1,-1],"loss_changes":[1.5863956E2,0E0,1.4936142E0,0E0,0E0],"parents":[2147483647,0,0,2,2],"right_children":[2,-1,4,-1,-1],"split_conditions":[4.932678E-1,-1.0549463E-1,5.0658315E-1,4.2044627E-3,1.158903E-1],"split_indices":[0,0,0,0,0],"split_type":[0,0,0,0,0],"sum_hessian":[1.305499E2,6.8935165E1,6.161472E1,1.2995477E0,6.0315174E1],"tree_param":{"num_deleted":"0","num_feature":"2","num_nodes":"5","size_leaf_vector":"1"}},{"base_weights":[-1.98178E-2,-1.0465663E-1,1.1140991E0,3.9632404E-3,1.1381333E-1],"categories":[],"categories_nodes":[],"categories_segments":[],"categories_sizes":[],"default_left":[0,0,0,0,0],"id":16,"left_children":[1,-1,3,-1,-1],"loss_changes":[1.4168578E2,0E0,1.4485245E0,0E0,0E0],"parents":[2147483647,0,0,2,2],"right_children":[2,-1,4,-1,-1],"split_conditions":[4.932678E-1,-1.0465663E-1,5.0658315E-1,3.9632404E-3,1.1381333E-1],"split_indices":[0,0,0,0,0],"split_type":[0,0,0,0,0],"sum_hessian":[1.19695816E2,6.2856773E1,5.683904E1,1.3015413E0,5.55375E1],"tree_param":{"num_deleted":"0","num_feature":"2","num_nodes":"5","size_leaf_vector":"1"}},{"base_weights":[-1.9683607E-2,-1.0388011E-1,1.0938957E0,3.7359097E-3,1.1196325E-1],"categories":[],"categories_nodes":[],"categories_segments":[],"categories_sizes":[],"default_left":[0,0,0,0,0],"id":17,"left_children":[1,-1,3,-1,-1],"loss_changes":[1.26703926E2,0E0,1.4091034E0,0E0,0E0],"parents":[2147483647,0,0,2,2],"right_children":[2,-1,4,-1,-1],"split_conditions":[4.932678E-1,-1.0388011E-1,5.0658315E-1,3.7359097E-3,1.1196325E-1],"split_indices":[0,0,0,0,0],"split_type":[0,0,0,0,0],"sum_hessian":[1.0964509E2,5.728582E1,5.2359272E1,1.3034147E0,5.1055855E1],"tree_param":{"num_deleted":"0","num_feature":"2","num_nodes":"5","size_leaf_vector":"1"}},{"base_weights":[-1.9537004E-2,-1.0315507E-1,1.0754094E0,3.5216722E-3,1.103034E-1],"categories":[],"categories_nodes":[],"categories_segments":[],"categories_sizes":[],"default_left":[0,0,0,0,0],"id":18,"left_children":[1,-1,3,-1,-1],"loss_changes":[1.1342995E2,0E0,1.3742218E0,0E0,0E0],"parents":[2147483647,0,0,2,2],"right_children":[2,-1,4,-1,-1],"split_conditions":[4.932678E-1,-1.0315507E-1,5.0658315E-1,3.5216722E-3,1.103034E-1],"split_indices":[0,0,0,0,0],"split_type":[0,0,0,0,0],"sum_hessian":[1.0036317E2,5.218689E1,4.817628E1,1.3051746E0,4.687111E1],"tree_param":{"num_deleted":"0","num_feature":"2","num_nodes":"5","size_leaf_vector":"1"}},{"base_weights":[-1.9378792E-2,-1.0247258E-1,1.0583264E0,3.3197782E-3,1.0880333E-1],"categories":[],"categories_nodes":[],"categories_segments":[],"categories_sizes":[],"default_left":[0,0,0,0,0],"id":19,"left_children":[1,-1,3,-1,-1],"loss_changes":[1.0164226E2,0E0,1.342968E0,0E0,0E0],"parents":[2147483647,0,0,2,2],"right_children":[2,-1,4,-1,-1],"split_conditions":[4.932678E-1,-1.0247258E-1,5.0658315E-1,3.3197782E-3,1.0880333E-1],"split_indices":[0,0,0,0,0],"split_type":[0,0,0,0,0],"sum_hessian":[9.1811035E1,4.7525555E1,4.4285484E1,1.3068285E0,4.2978657E1],"tree_param":{"num_deleted":"0","num_feature":"2","num_nodes":"5","size_leaf_vector":"1"}},{"base_weights":[-1.9210089E-2,-1.0182462E-1,1.0423803E0,3.1294886E-3,1.07437424E-1],"categories":[],"categories_nodes":[],"categories_segments":[],"categories_sizes":[],"default_left":[0,0,0,0,0],"id":20,"left_children":[1,-1,3,-1,-1],"loss_changes":[9.1153496E1,0E0,1.3146133E0,0E0,0E0],"parents":[2147483647,0,0,2,2],"right_children":[2,-1,4,-1,-1],"split_conditions":[4.932678E-1,-1.0182462E-1,5.0658315E-1,3.1294886E-3,1.07437424E-1],"split_indices":[0,0,0,0,0],"split_type":[0,0,0,0,0],"sum_hessian":[8.39471E1,4.3268776E1,4.0678326E1,1.3083833E0,3.936994E1],"tree_param":{"num_deleted":"0","num_feature":"2","num_nodes":"5","size_leaf_vector":"1"}},{"base_weights":[-1.9030655E-2,-1.0120385E-1,1.0273434E0,2.950143E-3,1.0618394E-1],"categories":[],"categories_nodes":[],"categories_segments":[],"categories_sizes":[],"default_left":[0,0,0,0,0],"id":21,"left_children":[1,-1,3,-1,-1],"loss_changes":[8.1804245E1,0E0,1.2885208E0,0E0,0E0],"parents":[2147483647,0,0,2,2],"right_children":[2,-1,4,-1,-1],"split_conditions":[4.932678E-1,-1.0120385E-1,5.0658315E-1,2.950143E-3,1.0618394E-1],"split_indices":[0,0,0,0,0],"split_type":[0,0,0,0,0],"sum_hessian":[7.6728645E1,3.938507E1,3.7343575E1,1.3098447E0,3.603373E1],"tree_param":{"num_deleted":"0","num_feature":"2","num_nodes":"5","size_leaf_vector":"1"}},{"base_weights":[-1.8840656E-2,-1.00603595E-1,1.013018E0,2.7811097E-3,1.05024196E-1],"categories":[],"categories_nodes":[],"categories_segments":[],"categories_sizes":[],"default_left":[0,0,0,0,0],"id":22,"left_children":[1,-1,3,-1,-1],"loss_changes":[7.345791E1,0E0,1.2641907E0,0E0,0E0],"parents":[2147483647,0,0,2,2],"right_children":[2,-1,4,-1,-1],"split_conditions":[4.932678E-1,-1.00603595E-1,5.0658315E-1,2.7811097E-3,1.05024196E-1],"split_indices":[0,0,0,0,0],"split_type":[0,0,0,0,0],"sum_hessian":[7.0112816E1,3.584468E1,3.4268135E1,1.311219E0,3.2956917E1],"tree_param":{"num_deleted":"0","num_feature":"2","num_nodes":"5","size_leaf_vector":"1"}},{"base_weights":[-1.8641336E-2,-1.0001767E-1,9.9923116E-1,2.6217878E-3,1.03941955E-1],"categories":[],"categories_nodes":[],"categories_segments":[],"categories_sizes":[],"default_left":[0,0,0,0,0],"id":23,"left_children":[1,-1,3,-1,-1],"loss_changes":[6.599679E1,0E0,1.241188E0,0E0,0E0],"parents":[2147483647,0,0,2,2],"right_children":[2,-1,4,-1,-1],"split_conditions":[4.932678E-1,-1.0001767E-1,5.0658315E-1,2.6217878E-3,1.03941955E-1],"split_indices":[0,0,0,0,0],"split_type":[0,0,0,0,0],"sum_hessian":[6.405737E1,3.2619625E1,3.1437748E1,1.312511E0,3.0125237E1],"tree_param":{"num_deleted":"0","num_feature":"2","num_nodes":"5","size_leaf_vector":"1"}},{"base_weights":[-1.843067E-2,-9.944035E-2,9.858316E-1,2.471608E-3,1.0292311E-1],"categories":[],"categories_nodes":[],"categories_segments":[],"categories_sizes":[],"default_left":[0,0,0,0,0],"id":24,"left_children":[1,-1,3,-1,-1],"loss_changes":[5.9319252E1,0E0,1.2191486E0,0E0,0E0],"parents":[2147483647,0,0,2,2],"right_children":[2,-1,4,-1,-1],"split_conditions":[4.932678E-1,-9.944035E-2,5.0658315E-1,2.471608E-3,1.0292311E-1],"split_indices":[0,0,0,0,0],"split_type":[0,0,0,0,0],"sum_hessian":[5.8521465E1,2.968373E1,2.8837738E1,1.3137262E0,2.7524012E1],"tree_param":{"num_deleted":"0","num_feature":"2","num_nodes":"5","size_leaf_vector":"1"}},{"base_weights":[-1.8208759E-2,-9.886622E-2,9.7268456E-1,2.3300631E-3,1.0195513E-1],"categories":[],"categories_nodes":[],"categories_segments":[],"categories_sizes":[],"default_left":[0,0,0,0,0],"id":25,"left_children":[1,-1,3,-1,-1],"loss_changes":[5.3336823E1,0E0,1.1977558E0,0E0,0E0],"parents":[2147483647,0,0,2,2],"right_children":[2,-1,4,-1,-1],"split_conditions":[4.932678E-1,-9.886622E-2,5.0658315E-1,2.3300631E-3,1.0195513E-1],"split_indices":[0,0,0,0,0],"split_type":[0,0,0,0,0],"sum_hessian":[5.346579E1,2.7012627E1,2.6453165E1,1.3148692E0,2.5138296E1],"tree_param":{"num_deleted":"0","num_feature":"2","num_nodes":"5","size_leaf_vector":"1"}},{"base_weights":[-1.7976152E-2,-9.829022E-2,9.596698E-1,2.1966384E-3,1.0102683E-1],"categories":[],"categories_nodes":[],"categories_segments":[],"categories_sizes":[],"default_left":[0,0,0,0,0],"id":26,"left_children":[1,-1,3,-1,-1],"loss_changes":[4.7972263E1,0E0,1.1767426E0,0E0,0E0],"parents":[2147483647,0,0,2,2],"right_children":[2,-1,4,-1,-1],"split_conditions":[4.932678E-1,-9.829022E-2,5.0658315E-1,2.1966384E-3,1.0102683E-1],"split_indices":[0,0,0,0,0],"split_type":[0,0,0,0,0],"sum_hessian":[4.8852867E1,2.4583672E1,2.4269196E1,1.3159444E0,2.295325E1],"tree_param":{"num_deleted":"0","num_feature":"2","num_nodes":"5","size_leaf_vector":"1"}},{"base_weights":[-1.7732417E-2,-9.770754E-2,9.466808E-1,2.07087E-3,1.0012827E-1],"categories":[],"categories_nodes":[],"categories_segments":[],"categories_sizes":[],"default_left":[0,0,0,0,0],"id":27,"left_children":[1,-1,3,-1,-1],"loss_changes":[4.3158024E1,0E0,1.1558647E0,0E0,0E0],"parents":[2147483647,0,0,2,2],"right_children":[2,-1,4,-1,-1],"split_conditions":[4.932678E-1,-9.770754E-2,5.0658315E-1,2.07087E-3,1.0012827E-1],"split_indices":[0,0,0,0,0],"split_type":[0,0,0,0,0],"sum_hessian":[4.464733E1,2.237592E1,2.2271412E1,1.316956E0,2.0954456E1],"tree_param":{"num_deleted":"0","num_feature":"2","num_nodes":"5","size_leaf_vector":"1"}},{"base_weights":[-1.7475637E-2,-9.711363E-2,9.336225E-1,1.9523175E-3,9.925042E-2],"categories":[],"categories_nodes":[],"categories_segments":[],"categories_sizes":[],"default_left":[0,0,0,0,0],"id":28,"left_children":[1,-1,3,-1,-1],"loss_changes":[3.8834824E1,0E0,1.1349258E0,0E0,0E0],"parents":[2147483647,0,0,2,2],"right_children":[2,-1,4,-1,-1],"split_conditions":[4.932678E-1,-9.711363E-2,5.0658315E-1,1.9523175E-3,9.925042E-2],"split_indices":[0,0,0,0,0],"split_type":[0,0,0,0,0],"sum_hessian":[4.0816006E1,2.0370028E1,2.0445978E1,1.3179077E0,1.912807E1],"tree_param":{"num_deleted":"0","num_feature":"2","num_nodes":"5","size_leaf_vector":"1"}},{"base_weights":[-1.7207922E-2,-9.650412E-2,9.2040986E-1,1.8405697E-3,9.838506E-2],"categories":[],"categories_nodes":[],"categories_segments":[],"categories_sizes":[],"default_left":[0,0,0,0,0],"id":29,"left_children":[1,-1,3,-1,-1],"loss_changes":[3.4950253E1,0E0,1.1137505E0,0E0,0E0],"parents":[2147483647,0,0,2,2],"right_children":[2,-1,4,-1,-1],"split_conditions":[4.932678E-1,-9.650412E-2,5.0658315E-1,1.8405697E-3,9.838506E-2],"split_indices":[0,0,0,0,0],"split_type":[0,0,0,0,0],"sum_hessian":[3.7327682E1,1.8548176E1,1.8779509E1,1.3188033E0,1.7460705E1],"tree_param":{"num_deleted":"0","num_feature":"2","num_nodes":"5","size_leaf_vector":"1"}},{"base_weights":[-1.6925948E-2,-9.587489E-2,9.069694E-1,1.7352274E-3,9.7524785E-2],"categories":[],"categories_nodes":[],"categories_segments":[],"categories_sizes":[],"default_left":[0,0,0,0,0],"id":30,"left_children":[1,-1,3,-1,-1],"loss_changes":[3.1458237E1,0E0,1.0921898E0,0E0,0E0],"parents":[2147483647,0,0,2,2],"right_children":[2,-1,4,-1,-1],"split_conditions":[4.932678E-1,-9.587489E-2,5.0658315E-1,1.7352274E-3,9.7524785E-2],"split_indices":[0,0,0,0,0],"split_type":[0,0,0,0,0],"sum_hessian":[3.415351E1,1.6893984E1,1.7259525E1,1.3196464E0,1.5939879E1],"tree_param":{"num_deleted":"0","num_feature":"2","num_nodes":"5","size_leaf_vector":"1"}},{"base_weights":[-1.6632244E-2,-9.522199E-2,8.932358E-1,1.6359146E-3,9.666272E-2],"categories":[],"categories_nodes":[],"categories_segments":[],"categories_sizes":[],"default_left":[0,0,0,0,0],"id":31,"left_children":[1,-1,3,-1,-1],"loss_changes":[2.8317778E1,0E0,1.0701227E0,0E0,0E0],"parents":[2147483647,0,0,2,2],"right_children":[2,-1,4,-1,-1],"split_conditions":[4.932678E-1,-9.522199E-2,5.0658315E-1,1.6359146E-3,9.666272E-2],"split_indices":[0,0,0,0,0],"split_type":[0,0,0,0,0],"sum_hessian":[3.12665E1,1.5392425E1,1.5874075E1,1.3204398E0,1.4553635E1],"tree_param":{"num_deleted":"0","num_feature":"2","num_nodes":"5","size_leaf_vector":"1"}},{"base_weights":[-1.6323535E-2,-9.454169E-2,8.791551E-1,1.5422984E-3,9.5792726E-2],"categories":[],"categories_nodes":[],"categories_segments":[],"categories_sizes":[],"default_left":[0,0,0,0,0],"id":32,"left_children":[1,-1,3,-1,-1],"loss_changes":[2.5492697E1,0E0,1.0474453E0,0E0,0E0],"parents":[2147483647,0,0,2,2],"right_children":[2,-1,4,-1,-1],"split_conditions":[4.932678E-1,-9.454169E-2,5.0658315E-1,1.5422984E-3,9.5792726E-2],"split_indices":[0,0,0,0,0],"split_type":[0,0,0,0,0],"sum_hessian":[2.8641855E1,1.4029718E1,1.4612138E1,1.3211865E0,1.3290951E1],"tree_param":{"num_deleted":"0","num_feature":"2","num_nodes":"5","size_leaf_vector":"1"}},{"base_weights":[-1.600304E-2,-9.383049E-2,8.6468107E-1,1.454058E-3,9.490903E-2],"categories":[],"categories_nodes":[],"categories_segments":[],"categories_sizes":[],"default_left":[0,0,0,0,0],"id":33,"left_children":[1,-1,3,-1,-1],"loss_changes":[2.2950611E1,0E0,1.0240774E0,0E0,0E0],"parents":[2147483647,0,0,2,2],"right_children":[2,-1,4,-1,-1],"split_conditions":[4.932678E-1,-9.383049E-2,5.0658315E-1,1.454058E-3,9.490903E-2],"split_indices":[0,0,0,0,0],"split_type":[0,0,0,0,0],"sum_hessian":[2.6256506E1,1.279326E1,1.3463247E1,1.3218895E0,1.2141357E1],"tree_param":{"num_deleted":"0","num_feature":"2","num_nodes":"5","size_leaf_vector":"1"}},{"base_weights":[-1.5667578E-2,-9.308513E-2,8.497793E-1,1.3708636E-3,9.400655E-2],"categories":[],"categories_nodes":[],"categories_segments":[],"categories_sizes":[],"default_left":[0,0,0,0,0],"id":34,"left_children":[1,-1,3,-1,-1],"loss_changes":[2.066287E1,0E0,9.9996567E-1,0E0,0E0],"parents":[2147483647,0,0,2,2],"right_children":[2,-1,4,-1,-1],"split_conditions":[4.932678E-1,-9.308513E-2,5.0658315E-1,1.3708636E-3,9.400655E-2],"split_indices":[0,0,0,0,0],"split_type":[0,0,0,0,0],"sum_hessian":[2.4089361E1,1.1671516E1,1.2417845E1,1.3225514E0,1.1095294E1],"tree_param":{"num_deleted":"0","num_feature":"2","num_nodes":"5","size_leaf_vector":"1"}},{"base_weights":[-1.53189935E-2,-9.230259E-2,8.34424E-1,1.2924334E-3,9.308063E-2],"categories":[],"categories_nodes":[],"categories_segments":[],"categories_sizes":[],"default_left":[0,0,0,0,0],"id":35,"left_children":[1,-1,3,-1,-1],"loss_changes":[1.860377E1,0E0,9.750786E-1,0E0,0E0],"parents":[2147483647,0,0,2,2],"right_children":[2,-1,4,-1,-1],"split_conditions":[4.932678E-1,-9.230259E-2,5.0658315E-1,1.2924334E-3,9.308063E-2],"split_indices":[0,0,0,0,0],"split_type":[0,0,0,0,0],"sum_hessian":[2.212092E1,1.0653968E1,1.1466952E1,1.3231746E0,1.0143778E1],"tree_param":{"num_deleted":"0","num_feature":"2","num_nodes":"5","size_leaf_vector":"1"}},{"base_weights":[-1.4956959E-2,-9.148018E-2,8.1860006E-1,1.2184964E-3,9.212716E-2],"categories":[],"categories_nodes":[],"categories_segments":[],"categories_sizes":[],"default_left":[0,0,0,0,0],"id":36,"left_children":[1,-1,3,-1,-1],"loss_changes":[1.67504E1,0E0,9.4939995E-1,0E0,0E0],"parents":[2147483647,0,0,2,2],"right_children":[2,-1,4,-1,-1],"split_conditions":[4.932678E-1,-9.148018E-2,5.0658315E-1,1.2184964E-3,9.212716E-2],"split_indices":[0,0,0,0,0],"split_type":[0,0,0,0,0],"sum_hessian":[2.0333345E1,9.731014E0,1.0602331E1,1.3237615E0,9.278569E0],"tree_param":{"num_deleted":"0","num_feature":"2","num_nodes":"5","size_leaf_vector":"1"}},{"base_weights":[-1.4583892E-2,-9.061555E-2,8.023017E-1,1.1487987E-3,9.114248E-2],"categories":[],"categories_nodes":[],"categories_segments":[],"categories_sizes":[],"default_left":[0,0,0,0,0],"id":37,"left_children":[1,-1,3,-1,-1],"loss_changes":[1.5082201E1,0E0,9.2293596E-1,0E0,0E0],"parents":[2147483647,0,0,2,2],"right_children":[2,-1,4,-1,-1],"split_conditions":[4.932678E-1,-9.061555E-2,5.0658315E-1,1.1487987E-3,9.114248E-2],"split_indices":[0,0,0,0,0],"split_type":[0,0,0,0,0],"sum_hessian":[1.8710224E1,8.893898E0,9.816327E0,1.324314E0,8.492013E0],"tree_param":{"num_deleted":"0","num_feature":"2","num_nodes":"5","size_leaf_vector":"1"}},{"base_weights":[-1.4196508E-2,-8.970667E-2,7.855357E-1,1.0830872E-3,9.012363E-2],"categories":[],"categories_nodes":[],"categories_segments":[],"categories_sizes":[],"default_left":[0,0,0,0,0],"id":38,"left_children":[1,-1,3,-1,-1],"loss_changes":[1.3580845E1,0E0,8.9572096E-1,0E0,0E0],"parents":[2147483647,0,0,2,2],"right_children":[2,-1,4,-1,-1],"split_conditions":[4.932678E-1,-8.970667E-2,5.0658315E-1,1.0830872E-3,9.012363E-2],"split_indices":[0,0,0,0,0],"split_type":[0,0,0,0,0],"sum_hessian":[1.7236654E1,8.134645E0,9.102009E0,1.3248343E0,7.777175E0],"tree_param":{"num_deleted":"0","num_feature":"2","num_nodes":"5","size_leaf_vector":"1"}},{"base_weights":[-1.3796999E-2,-8.8751964E-2,7.6831686E-1,1.0211454E-3,8.9068085E-2],"categories":[],"categories_nodes":[],"categories_segments":[],"categories_sizes":[],"default_left":[0,0,0,0,0],"id":39,"left_children":[1,-1,3,-1,-1],"loss_changes":[1.2229777E1,0E0,8.6780214E-1,0E0,0E0],"parents":[2147483647,0,0,2,2],"right_children":[2,-1,4,-1,-1],"split_conditions":[4.932678E-1,-8.8751964E-2,5.0658315E-1,1.0211454E-3,8.9068085E-2],"split_indices":[0,0,0,0,0],"split_type":[0,0,0,0,0],"sum_hessian":[1.5898911E1,7.4459968E0,8.452914E0,1.3253243E0,7.12759E0],"tree_param":{"num_deleted":"0","num_feature":"2","num_nodes":"5","size_leaf_vector":"1"}},{"base_weights":[-1.3385214E-2,-8.775031E-2,7.506711E-1,9.627472E-4,8.797396E-2],"categories":[],"categories_nodes":[],"categories_segments":[],"categories_sizes":[],"default_left":[0,0,0,0,0],"id":40,"left_children":[1,-1,3,-1,-1],"loss_changes":[1.1014176E1,0E0,8.3925104E-1,0E0,0E0],"parents":[2147483647,0,0,2,2],"right_children":[2,-1,4,-1,-1],"split_conditions":[4.932678E-1,-8.775031E-2,5.0658315E-1,9.627472E-4,8.797396E-2],"split_indices":[0,0,0,0,0],"split_type":[0,0,0,0,0],"sum_hessian":[1.4684517E1,6.8213534E0,7.8631635E0,1.3257861E0,6.5373774E0],"tree_param":{"num_deleted":"0","num_feature":"2","num_nodes":"5","size_leaf_vector":"1"}},{"base_weights":[-1.2967607E-2,-8.670102E-2,7.326301E-1,9.0768794E-4,8.683975E-2],"categories":[],"categories_nodes":[],"categories_segments":[],"categories_sizes":[],"default_left":[0,0,0,0,0],"id":41,"left_children":[1,-1,3,-1,-1],"loss_changes":[9.920593E0,0E0,8.101468E-1,0E0,0E0],"parents":[2147483647,0,0,2,2],"right_children":[2,-1,4,-1,-1],"split_conditions":[4.932678E-1,-8.670102E-2,5.0658315E-1,9.0768794E-4,8.683975E-2],"split_indices":[0,0,0,0,0],"split_type":[0,0,0,0,0],"sum_hessian":[1.3581974E1,6.254704E0,7.3272705E0,1.3262208E0,6.00105E0],"tree_param":{"num_deleted":"0","num_feature":"2","num_nodes":"5","size_leaf_vector":"1"}},{"base_weights":[-1.2535368E-2,-8.560397E-2,7.142418E-1,8.557738E-4,8.566507E-2],"categories":[],"categories_nodes":[],"categories_segments":[],"categories_sizes":[],"default_left":[0,0,0,0,0],"id":42,"left_children":[1,-1,3,-1,-1],"loss_changes":[8.937133E0,0E0,7.805989E-1,0E0,0E0],"parents":[2147483647,0,0,2,2],"right_children":[2,-1,4,-1,-1],"split_conditions":[4.932678E-1,-8.560397E-2,5.0658315E-1,8.557738E-4,8.566507E-2],"split_indices":[0,0,0,0,0],"split_type":[0,0,0,0,0],"sum_hessian":[1.2581036E1,5.740593E0,6.840442E0,1.3266304E0,5.513812E0],"tree_param":{"num_deleted":"0","num_feature":"2","num_nodes":"5","size_leaf_vector":"1"}},{"base_weights":[-1.2100408E-2,-8.445954E-2,6.9555175E-1,8.068369E-4,8.444947E-2],"categories":[],"categories_nodes":[],"categories_segments":[],"categories_sizes":[],"default_left":[0,0,0,0,0],"id":43,"left_children":[1,-1,3,-1,-1],"loss_changes":[8.052798E0,0E0,7.507129E-1,0E0,0E0],"parents":[2147483647,0,0,2,2],"right_children":[2,-1,4,-1,-1],"split_conditions":[4.932678E-1,-8.445954E-2,5.0658315E-1,8.068369E-4,8.444947E-2],"split_indices":[0,0,0,0,0],"split_type":[0,0,0,0,0],"sum_hessian":[1.1672084E1,5.274062E0,6.3980217E0,1.3270162E0,5.0710053E0],"tree_param":{"num_deleted":"0","num_feature":"2","num_nodes":"5","size_leaf_vector":"1"}},{"base_weights":[-1.1658882E-2,-8.3268695E-2,6.7661995E-1,7.6070474E-4,8.319368E-2],"categories":[],"categories_nodes":[],"categories_segments":[],"categories_sizes":[],"default_left":[0,0,0,0,0],"id":44,"left_children":[1,-1,3,-1,-1],"loss_changes":[7.257872E0,0E0,7.206149E-1,0E0,0E0],"parents":[2147483647,0,0,2,2],"right_children":[2,-1,4,-1,-1],"split_conditions":[4.932678E-1,-8.3268695E-2,5.0658315E-1,7.6070474E-4,8.319368E-2],"split_indices":[0,0,0,0,0],"split_type":[0,0,0,0,0],"sum_hessian":[1.0846582E1,4.8506145E0,5.9959683E0,1.3273796E0,4.668589E0],"tree_param":{"num_deleted":"0","num_feature":"2","num_nodes":"5","size_leaf_vector":"1"}},{"base_weights":[-1.12131825E-2,-8.203288E-2,6.575083E-1,7.172053E-4,8.18988E-2],"categories":[],"categories_nodes":[],"categories_segments":[],"categories_sizes":[],"default_left":[0,0,0,0,0],"id":45,"left_children":[1,-1,3,-1,-1],"loss_changes":[6.543488E0,0E0,6.904373E-1,0E0,0E0],"parents":[2147483647,0,0,2,2],"right_children":[2,-1,4,-1,-1],"split_conditions":[4.932678E-1,-8.203288E-2,5.0658315E-1,7.172053E-4,8.18988E-2],"split_indices":[0,0,0,0,0],"split_type":[0,0,0,0,0],"sum_hessian":[1.0096681E1,4.466162E0,5.630519E0,1.3277221E0,4.302797E0],"tree_param":{"num_deleted":"0","num_feature":"2","num_nodes":"5","size_leaf_vector":"1"}},{"base_weights":[-1.0763426E-2,-8.075419E-2,6.3828415E-1,6.7619764E-4,8.056663E-2],"categories":[],"categories_nodes":[],"categories_segments":[],"categories_sizes":[],"default_left":[0,0,0,0,0],"id":46,"left_children":[1,-1,3,-1,-1],"loss_changes":[5.9016724E0,0E0,6.603143E-1,0E0,0E0],"parents":[2147483647,0,0,2,2],"right_children":[2,-1,4,-1,-1],"split_conditions":[4.932678E-1,-8.075419E-2,5.0658315E-1,6.7619764E-4,8.056663E-2],"split_indices":[0,0,0,0,0],"split_type":[0,0,0,0,0],"sum_hessian":[9.4152775E0,4.117002E0,5.2982755E0,1.3280447E0,3.9702308E0],"tree_param":{"num_deleted":"0","num_feature":"2","num_nodes":"5","size_leaf_vector":"1"}},{"base_weights":[-1.031607E-2,-7.943513E-2,6.1901313E-1,6.37536E-4,7.9199255E-2],"categories":[],"categories_nodes":[],"categories_segments":[],"categories_sizes":[],"default_left":[0,0,0,0,0],"id":47,"left_children":[1,-1,3,-1,-1],"loss_changes":[5.3251476E0,0E0,6.3037753E-1,0E0,0E0],"parents":[2147483647,0,0,2,2],"right_children":[2,-1,4,-1,-1],"split_conditions":[4.932678E-1,-7.943513E-2,5.0658315E-1,6.37536E-4,7.9199255E-2],"split_indices":[0,0,0,0,0],"split_type":[0,0,0,0,0],"sum_hessian":[8.795853E0,3.7997735E0,4.996079E0,1.3283486E0,3.6677303E0],"tree_param":{"num_deleted":"0","num_feature":"2","num_nodes":"5","size_leaf_vector":"1"}},{"base_weights":[-9.868154E-3,-7.8078784E-2,5.9976774E-1,6.010902E-4,7.77997E-2],"categories":[],"categories_nodes":[],"categories_segments":[],"categories_sizes":[],"default_left":[0,0,0,0,0],"id":48,"left_children":[1,-1,3,-1,-1],"loss_changes":[4.807426E0,0E0,6.007633E-1,0E0,0E0],"parents":[2147483647,0,0,2,2],"right_children":[2,-1,4,-1,-1],"split_conditions":[4.932678E-1,-7.8078784E-2,5.0658315E-1,6.010902E-4,7.77997E-2],"split_indices":[0,0,0,0,0],"split_type":[0,0,0,0,0],"sum_hessian":[8.232586E0,3.511433E0,4.7211533E0,1.328635E0,3.3925185E0],"tree_param":{"num_deleted":"0","num_feature":"2","num_nodes":"5","size_leaf_vector":"1"}},{"base_weights":[-9.426014E-3,-7.6688625E-2,5.8061385E-1,5.6671514E-4,7.637101E-2],"categories":[],"categories_nodes":[],"categories_segments":[],"categories_sizes":[],"default_left":[0,0,0,0,0],"id":49,"left_children":[1,-1,3,-1,-1],"loss_changes":[4.3425612E0,0E0,5.7159615E-1,0E0,0E0],"parents":[2147483647,0,0,2,2],"right_children":[2,-1,4,-1,-1],"split_conditions":[4.932678E-1,-7.6688625E-2,5.0658315E-1,5.6671514E-4,7.637101E-2],"split_indices":[0,0,0,0,0],"split_type":[0,0,0,0,0],"sum_hessian":[7.7201166E0,3.2492242E0,4.4708924E0,1.3289049E0,3.1419873E0],"tree_param":{"num_deleted":"0","num_feature":"2","num_nodes":"5","size_leaf_vector":"1"}},{"base_weights":[-8.983981E-3,-7.526853E-2,5.616232E-1,5.3431693E-4,7.491721E-2],"categories":[],"categories_nodes":[],"categories_segments":[],"categories_sizes":[],"default_left":[0,0,0,0,0],"id":50,"left_children":[1,-1,3,-1,-1],"loss_changes":[3.9252663E0,0E0,5.430007E-1,0E0,0E0],"parents":[2147483647,0,0,2,2],"right_children":[2,-1,4,-1,-1],"split_conditions":[4.932678E-1,-7.526853E-2,5.0658315E-1,5.3431693E-4,7.491721E-2],"split_indices":[0,0,0,0,0],"split_type":[0,0,0,0,0],"sum_hessian":[7.253676E0,3.010649E0,4.243027E0,1.3291593E0,2.913868E0],"tree_param":{"num_deleted":"0","num_feature":"2","num_nodes":"5","size_leaf_vector":"1"}},{"base_weights":[-8.55089E-3,-7.382268E-2,5.4285455E-1,5.0377136E-4,7.3441915E-2],"categories":[],"categories_nodes":[],"categories_segments":[],"categories_sizes":[],"default_left":[0,0,0,0,0],"id":51,"left_children":[1,-1,3,-1,-1],"loss_changes":[3.5506585E0,0E0,5.150789E-1,0E0,0E0],"parents":[2147483647,0,0,2,2],"right_children":[2,-1,4,-1,-1],"split_conditions":[4.932678E-1,-7.382268E-2,5.0658315E-1,5.0377136E-4,7.3441915E-2],"split_indices":[0,0,0,0,0],"split_type":[0,0,0,0,0],"sum_hessian":[6.8288302E0,2.793447E0,4.035383E0,1.3293989E0,2.7059846E0],"tree_param":{"num_deleted":"0","num_feature":"2","num_nodes":"5","size_leaf_vector":"1"}},{"base_weights":[-8.128293E-3,-7.2355516E-2,5.243673E-1,4.749746E-4,7.194934E-2],"categories":[],"categories_nodes":[],"categories_segments":[],"categories_sizes":[],"default_left":[0,0,0,0,0],"id":52,"left_children":[1,-1,3,-1,-1],"loss_changes":[3.214383E0,0E0,4.8792827E-1,0E0,0E0],"parents":[2147483647,0,0,2,2],"right_children":[2,-1,4,-1,-1],"split_conditions":[4.932678E-1,-7.2355516E-2,5.0658315E-1,4.749746E-4,7.194934E-2],"split_indices":[0,0,0,0,0],"split_type":[0,0,0,0,0],"sum_hessian":[6.441626E0,2.5955763E0,3.84605E0,1.3296245E0,2.5164254E0],"tree_param":{"num_deleted":"0","num_feature":"2","num_nodes":"5","size_leaf_vector":"1"}},{"base_weights":[-7.7126366E-3,-7.087162E-2,5.062188E-1,4.478233E-4,7.0444144E-2],"categories":[],"categories_nodes":[],"categories_segments":[],"categories_sizes":[],"default_left":[0,0,0,0,0],"id":53,"left_children":[1,-1,3,-1,-1],"loss_changes":[2.912528E0,0E0,4.6163726E-1,0E0,0E0],"parents":[2147483647,0,0,2,2],"right_children":[2,-1,4,-1,-1],"split_conditions":[4.932678E-1,-7.087162E-2,5.0658315E-1,4.478233E-4,7.0444144E-2],"split_indices":[0,0,0,0,0],"split_type":[0,0,0,0,0],"sum_hessian":[6.088512E0,2.415185E0,3.6733267E0,1.3298373E0,2.3434894E0],"tree_param":{"num_deleted":"0","num_feature":"2","num_nodes":"5","size_leaf_vector":"1"}},{"base_weights":[-7.313299E-3,-6.937569E-2,4.884516E-1,4.2222423E-4,6.8930276E-2],"categories":[],"categories_nodes":[],"categories_segments":[],"categories_sizes":[],"default_left":[0,0,0,0,0],"id":54,"left_children":[1,-1,3,-1,-1],"loss_changes":[2.6415002E0,0E0,4.3626654E-1,0E0,0E0],"parents":[2147483647,0,0,2,2],"right_children":[2,-1,4,-1,-1],"split_conditions":[4.932678E-1,-6.937569E-2,5.0658315E-1,4.2222423E-4,6.8930276E-2],"split_indices":[0,0,0,0,0],"split_type":[0,0,0,0,0],"sum_hessian":[5.7661915E0,2.2506044E0,3.515587E0,1.330038E0,2.185549E0],"tree_param":{"num_deleted":"0","num_feature":"2","num_nodes":"5","size_leaf_vector":"1"}},{"base_weights":[-6.9177593E-3,-6.787239E-2,4.7111827E-1,3.9808443E-4,6.7413114E-2],"categories":[],"categories_nodes":[],"categories_segments":[],"categories_sizes":[],"default_left":[0,0,0,0,0],"id":55,"left_children":[1,-1,3,-1,-1],"loss_changes":[2.3981705E0,0E0,4.118874E-1,0E0,0E0],"parents":[2147483647,0,0,2,2],"right_children":[2,-1,4,-1,-1],"split_conditions":[4.932678E-1,-6.787239E-2,5.0658315E-1,3.9808443E-4,6.7413114E-2],"split_indices":[0,0,0,0,0],"split_type":[0,0,0,0,0],"sum_hessian":[5.471827E0,2.1003253E0,3.3715017E0,1.3302269E0,2.0412748E0],"tree_param":{"num_deleted":"0","num_feature":"2","num_nodes":"5","size_leaf_vector":"1"}},{"base_weights":[-6.5382E-3,-6.6366345E-2,4.5424575E-1,3.7532634E-4,6.5896295E-2],"categories":[],"categories_nodes":[],"categories_segments":[],"categories_sizes":[],"default_left":[0,0,0,0,0],"id":56,"left_children":[1,-1,3,-1,-1],"loss_changes":[2.1795964E0,0E0,3.885275E-1,0E0,0E0],"parents":[2147483647,0,0,2,2],"right_children":[2,-1,4,-1,-1],"split_conditions":[4.932678E-1,-6.6366345E-2,5.0658315E-1,3.7532634E-4,6.5896295E-2],"split_indices":[0,0,0,0,0],"split_type":[0,0,0,0,0],"sum_hessian":[5.202691E0,1.9629834E0,3.2397077E0,1.330405E0,1.9093027E0],"tree_param":{"num_deleted":"0","num_feature":"2","num_nodes":"5","size_leaf_vector":"1"}},{"base_weights":[-6.177923E-3,-6.4862035E-2,4.378612E-1,3.538776E-4,6.4383835E-2],"categories":[],"categories_nodes":[],"categories_segments":[],"categories_sizes":[],"default_left":[0,0,0,0,0],"id":57,"left_children":[1,-1,3,-1,-1],"loss_changes":[1.98318E0,0E0,3.6621225E-1,0E0,0E0],"parents":[2147483647,0,0,2,2],"right_children":[2,-1,4,-1,-1],"split_conditions":[4.932678E-1,-6.4862035E-2,5.0658315E-1,3.538776E-4,6.4383835E-2],"split_indices":[0,0,0,0,0],"split_type":[0,0,0,0,0],"sum_hessian":[4.956381E0,1.837349E0,3.1190321E0,1.3305728E0,1.7884592E0],"tree_param":{"num_deleted":"0","num_feature":"2","num_nodes":"5","size_leaf_vector":"1"}},{"base_weights":[-5.831308E-3,-6.336375E-2,4.2199233E-1,3.336455E-4,6.288024E-2],"categories":[],"categories_nodes":[],"categories_segments":[],"categories_sizes":[],"default_left":[0,0,0,0,0],"id":58,"left_children":[1,-1,3,-1,-1],"loss_changes":[1.806621E0,0E0,3.4496373E-1,0E0,0E0],"parents":[2147483647,0,0,2,2],"right_children":[2,-1,4,-1,-1],"split_conditions":[4.932678E-1,-6.336375E-2,5.0658315E-1,3.336455E-4,6.288024E-2],"split_indices":[0,0,0,0,0],"split_type":[0,0,0,0,0],"sum_hessian":[4.730775E0,1.7223115E0,3.0084636E0,1.3307312E0,1.6777325E0],"tree_param":{"num_deleted":"0","num_feature":"2","num_nodes":"5","size_leaf_vector":"1"}},{"base_weights":[-5.500722E-3,-6.187555E-2,4.0665457E-1,3.1457833E-4,6.138915E-2],"categories":[],"categories_nodes":[],"categories_segments":[],"categories_sizes":[],"default_left":[0,0,0,0,0],"id":59,"left_children":[1,-1,3,-1,-1],"loss_changes":[1.6478231E0,0E0,3.2478327E-1,0E0,0E0],"parents":[2147483647,0,0,2,2],"right_children":[2,-1,4,-1,-1],"split_conditions":[4.932678E-1,-6.187555E-2,5.0658315E-1,3.1457833E-4,6.138915E-2],"split_indices":[0,0,0,0,0],"split_type":[0,0,0,0,0],"sum_hessian":[4.5239134E0,1.61687E0,2.9070435E0,1.3308803E0,1.5761632E0],"tree_param":{"num_deleted":"0","num_feature":"2","num_nodes":"5","size_leaf_vector":"1"}},{"base_weights":[-5.1801736E-3,-6.040116E-2,3.9186433E-1,2.9658864E-4,5.991462E-2],"categories":[],"categories_nodes":[],"categories_segments":[],"categories_sizes":[],"default_left":[0,0,0,0,0],"id":60,"left_children":[1,-1,3,-1,-1],"loss_changes":[1.5049337E0,0E0,3.056715E-1,0E0,0E0],"parents":[2147483647,0,0,2,2],"right_children":[2,-1,4,-1,-1],"split_conditions":[4.932678E-1,-6.040116E-2,5.0658315E-1,2.9658864E-4,5.991462E-2],"split_indices":[0,0,0,0,0],"split_type":[0,0,0,0,0],"sum_hessian":[4.3340697E0,1.5201207E0,2.813949E0,1.3310207E0,1.4829285E0],"tree_param":{"num_deleted":"0","num_feature":"2","num_nodes":"5","size_leaf_vector":"1"}},{"base_weights":[-4.879401E-3,-5.8944035E-2,3.7761962E-1,2.796453E-4,5.8459025E-2],"categories":[],"categories_nodes":[],"categories_segments":[],"categories_sizes":[],"default_left":[0,0,0,0,0],"id":61,"left_children":[1,-1,3,-1,-1],"loss_changes":[1.376241E0,0E0,2.8760135E-1,0E0,0E0],"parents":[2147483647,0,0,2,2],"right_children":[2,-1,4,-1,-1],"split_conditions":[4.932678E-1,-5.8944035E-2,5.0658315E-1,2.796453E-4,5.8459025E-2],"split_indices":[0,0,0,0,0],"split_type":[0,0,0,0,0],"sum_hessian":[4.1596055E0,1.431249E0,2.7283564E0,1.3311533E0,1.397203E0],"tree_param":{"num_deleted":"0","num_feature":"2","num_nodes":"5","size_leaf_vector":"1"}},{"base_weights":[-4.5969873E-3,-5.7507254E-2,3.639227E-1,2.636558E-4,5.702532E-2],"categories":[],"categories_nodes":[],"categories_segments":[],"categories_sizes":[],"default_left":[0,0,0,0,0],"id":62,"left_children":[1,-1,3,-1,-1],"loss_changes":[1.2602496E0,0E0,2.7055186E-1,0E0,0E0],"parents":[2147483647,0,0,2,2],"right_children":[2,-1,4,-1,-1],"split_conditions":[4.932678E-1,-5.7507254E-2,5.0658315E-1,2.636558E-4,5.702532E-2],"split_indices":[0,0,0,0,0],"split_type":[0,0,0,0,0],"sum_hessian":[3.9990973E0,1.3495204E0,2.649577E0,1.3312782E0,1.3182988E0],"tree_param":{"num_deleted":"0","num_feature":"2","num_nodes":"5","size_leaf_vector":"1"}},{"base_weights":[-4.334156E-3,-5.6093592E-2,3.5076985E-1,2.485892E-4,5.561589E-2],"categories":[],"categories_nodes":[],"categories_segments":[],"categories_sizes":[],"default_left":[0,0,0,0,0],"id":63,"left_children":[1,-1,3,-1,-1],"loss_changes":[1.1556168E0,0E0,2.5449198E-1,0E0,0E0],"parents":[2147483647,0,0,2,2],"right_children":[2,-1,4,-1,-1],"split_conditions":[4.932678E-1,-5.6093592E-2,5.0658315E-1,2.485892E-4,5.561589E-2],"split_indices":[0,0,0,0,0],"split_type":[0,0,0,0,0],"sum_hessian":[3.8512516E0,1.274274E0,2.5769775E0,1.3313959E0,1.2455817E0],"tree_param":{"num_deleted":"0","num_feature":"2","num_nodes":"5","size_leaf_vector":"1"}},{"base_weights":[-4.07549E-3,-5.470543E-2,3.38168E-1,2.3438377E-4,5.4234374E-2],"categories":[],"categories_nodes":[],"categories_segments":[],"categories_sizes":[],"default_left":[0,0,0,0,0],"id":64,"left_children":[1,-1,3,-1,-1],"loss_changes":[1.0611845E0,0E0,2.3940381E-1,0E0,0E0],"parents":[2147483647,0,0,2,2],"right_children":[2,-1,4,-1,-1],"split_conditions":[4.932678E-1,-5.470543E-2,5.0658315E-1,2.3438377E-4,5.4234374E-2],"split_indices":[0,0,0,0,0],"split_type":[0,0,0,0,0],"sum_hessian":[3.7149749E0,1.2049123E0,2.5100627E0,1.3315067E0,1.178556E0],"tree_param":{"num_deleted":"0","num_feature":"2","num_nodes":"5","size_leaf_vector":"1"}},{"base_weights":[-3.8348832E-3,-5.3344823E-2,3.260954E-1,2.2098809E-4,5.288127E-2],"categories":[],"categories_nodes":[],"categories_segments":[],"categories_sizes":[],"default_left":[0,0,0,0,0],"id":65,"left_children":[1,-1,3,-1,-1],"loss_changes":[9.7584236E-1,0E0,2.2523397E-1,0E0,0E0],"parents":[2147483647,0,0,2,2],"right_children":[2,-1,4,-1,-1],"split_conditions":[4.932678E-1,-5.3344823E-2,5.0658315E-1,2.2098809E-4,5.288127E-2],"split_indices":[0,0,0,0,0],"split_type":[0,0,0,0,0],"sum_hessian":[3.5891502E0,1.1408978E0,2.4482524E0,1.3316113E0,1.116641E0],"tree_param":{"num_deleted":"0","num_feature":"2","num_nodes":"5","size_leaf_vector":"1"}},{"base_weights":[-3.607746E-3,-5.2013498E-2,3.1454408E-1,2.08361E-4,5.1558524E-2],"categories":[],"categories_nodes":[],"categories_segments":[],"categories_sizes":[],"default_left":[0,0,0,0,0],"id":66,"left_children":[1,-1,3,-1,-1],"loss_changes":[8.986471E-1,0E0,2.1194616E-1,0E0,0E0],"parents":[2147483647,0,0,2,2],"right_children":[2,-1,4,-1,-1],"split_conditions":[4.932678E-1,-5.2013498E-2,5.0658315E-1,2.08361E-4,5.1558524E-2],"split_indices":[0,0,0,0,0],"split_type":[0,0,0,0,0],"sum_hessian":[3.4728506E0,1.0817457E0,2.391105E0,1.33171E0,1.0593948E0],"tree_param":{"num_deleted":"0","num_feature":"2","num_nodes":"5","size_leaf_vector":"1"}},{"base_weights":[-3.3995616E-3,-5.0712854E-2,3.0349478E-1,1.9645123E-4,5.026672E-2],"categories":[],"categories_nodes":[],"categories_segments":[],"categories_sizes":[],"default_left":[0,0,0,0,0],"id":67,"left_children":[1,-1,3,-1,-1],"loss_changes":[8.2873356E-1,0E0,1.9949177E-1,0E0,0E0],"parents":[2147483647,0,0,2,2],"right_children":[2,-1,4,-1,-1],"split_conditions":[4.932678E-1,-5.0712854E-2,5.0658315E-1,1.9645123E-4,5.026672E-2],"split_indices":[0,0,0,0,0],"split_type":[0,0,0,0,0],"sum_hessian":[3.3651965E0,1.027019E0,2.3381774E0,1.331803E0,1.0063745E0],"tree_param":{"num_deleted":"0","num_feature":"2","num_nodes":"5","size_leaf_vector":"1"}},{"base_weights":[-3.1995405E-3,3.094305E-2,-2.0598513E-1,-4.8651576E-2,1.5383539E-2],"categories":[],"categories_nodes":[],"categories_segments":[],"categories_sizes":[],"default_left":[0,0,0,0,0],"id":68,"left_children":[1,-1,3,-1,-1],"loss_changes":[3.3415493E-1,0E0,3.9660236E-1,0E0,0E0],"parents":[2147483647,0,0,2,2],"right_children":[2,-1,4,-1,-1],"split_conditions":[-1.1316841E-1,3.094305E-2,3.4793448E-1,-4.8651576E-2,1.5383539E-2],"split_indices":[1,0,1,0,0],"split_type":[0,0,0,0,0],"sum_hessian":[3.2654612E0,1.0778557E0,2.1876056E0,1.0313874E0,1.1562182E0],"tree_param":{"num_deleted":"0","num_feature":"2","num_nodes":"5","size_leaf_vector":"1"}},{"base_weights":[-3.5070267E-3,2.9286206E-2,-1.9639175E-1,-4.6427947E-2,1.45413205E-2],"categories":[],"categories_nodes":[],"categories_segments":[],"categories_sizes":[],"default_left":[0,0,0,0,0],"id":69,"left_children":[1,-1,3,-1,-1],"loss_changes":[3.0110133E-1,0E0,3.5866982E-1,0E0,0E0],"parents":[2147483647,0,0,2,2],"right_children":[2,-1,4,-1,-1],"split_conditions":[-1.1316841E-1,2.9286206E-2,3.4793448E-1,-4.6427947E-2,1.45413205E-2],"split_indices":[1,0,1,0,0],"split_type":[0,0,0,0,0],"sum_hessian":[3.261093E0,1.0813153E0,2.1797776E0,1.0211443E0,1.1586332E0],"tree_param":{"num_deleted":"0","num_feature":"2","num_nodes":"5","size_leaf_vector":"1"}},{"base_weights":[-3.8383247E-3,2.7802438E-2,-1.8677911E-1,-4.4127177E-2,1.374461E-2],"categories":[],"categories_nodes":[],"categories_segments":[],"categories_sizes":[],"default_left":[0,0,0,0,0],"id":70,"left_children":[1,-1,3,-1,-1],"loss_changes":[2.7149174E-1,0E0,3.2306594E-1,0E0,0E0],"parents":[2147483647,0,0,2,2],"right_children":[2,-1,4,-1,-1],"split_conditions":[-1.22684635E-1,2.7802438E-2,3.4793448E-1,-4.4127177E-2,1.374461E-2],"split_indices":[1,0,1,0,0],"split_type":[0,0,0,0,0],"sum_hessian":[3.258045E0,1.0777582E0,2.180287E0,1.0192486E0,1.1610382E0],"tree_param":{"num_deleted":"0","num_feature":"2","num_nodes":"5","size_leaf_vector":"1"}},{"base_weights":[-4.1239685E-3,-5.0278097E-2,3.0574305E-2],"categories":[],"categories_nodes":[],"categories_segments":[],"categories_sizes":[],"default_left":[0,0,0],"id":71,"left_children":[1,-1,-1],"loss_changes":[8.1138253E-1,0E0,0E0],"parents":[2147483647,0,0],"right_children":[2,-1,-1],"split_conditions":[4.932678E-1,-5.0278097E-2,3.0574305E-2],"split_indices":[0,0,0],"split_type":[0,0,0],"sum_hessian":[3.2562256E0,1.009349E0,2.2468767E0],"tree_param":{"num_deleted":"0","num_feature":"2","num_nodes":"3","size_leaf_vector":"1"}},{"base_weights":[-8.713275E-3,2.6897563E-2,-1.8806441E-1,-4.3153003E-2,1.2898636E-2],"categories":[],"categories_nodes":[],"categories_segments":[],"categories_sizes":[],"default_left":[0,0,0,0,0],"id":72,"left_children":[1,-1,3,-1,-1],"loss_changes":[2.593929E-1,0E0,2.9772225E-1,0E0,0E0],"parents":[2147483647,0,0,2,2],"right_children":[2,-1,4,-1,-1],"split_conditions":[-1.1316841E-1,2.6897563E-2,3.5272017E-1,-4.3153003E-2,1.2898636E-2],"split_indices":[1,0,1,0,0],"split_type":[0,0,0,0,0],"sum_hessian":[3.1926136E0,1.0567441E0,2.1358695E0,1.0038953E0,1.1319741E0],"tree_param":{"num_deleted":"0","num_feature":"2","num_nodes":"5","size_leaf_vector":"1"}},{"base_weights":[-8.701835E-3,2.5969176E-2,-1.7635715E-1,-4.0364917E-2,1.2189568E-2],"categories":[],"categories_nodes":[],"categories_segments":[],"categories_sizes":[],"default_left":[0,0,0,0,0],"id":73,"left_children":[1,-1,3,-1,-1],"loss_changes":[2.344014E-1,0E0,2.6446602E-1,0E0,0E0],"parents":[2147483647,0,0,2,2],"right_children":[2,-1,4,-1,-1],"split_conditions":[-1.7417273E-1,2.5969176E-2,3.4793448E-1,-4.0364917E-2,1.2189568E-2],"split_indices":[1,0,1,0,0],"split_type":[0,0,0,0,0],"sum_hessian":[3.1913986E0,1.0159836E0,2.175415E0,1.0340265E0,1.1413884E0],"tree_param":{"num_deleted":"0","num_feature":"2","num_nodes":"5","size_leaf_vector":"1"}},{"base_weights":[-8.40691E-3,2.4207672E-2,-1.712895E-2],"categories":[],"categories_nodes":[],"categories_segments":[],"categories_sizes":[],"default_left":[0,0,0],"id":74,"left_children":[1,-1,-1],"loss_changes":[2.124716E-1,0E0,0E0],"parents":[2147483647,0,0],"right_children":[2,-1,-1],"split_conditions":[-1.1316841E-1,2.4207672E-2,-1.712895E-2],"split_indices":[1,0,0],"split_type":[0,0,0],"sum_hessian":[3.1913934E0,1.0659512E0,2.1254423E0],"tree_param":{"num_deleted":"0","num_feature":"2","num_nodes":"3","size_leaf_vector":"1"}},{"base_weights":[-5.9056613E-3,2.3588218E-2,-1.558907E-1,-3.825327E-2,1.2394017E-2],"categories":[],"categories_nodes":[],"categories_segments":[],"categories_sizes":[],"default_left":[0,0,0,0,0],"id":75,"left_children":[1,-1,3,-1,-1],"loss_changes":[1.8873382E-1,0E0,2.496134E-1,0E0,0E0],"parents":[2147483647,0,0,2,2],"right_children":[2,-1,4,-1,-1],"split_conditions":[-2.0644575E-1,2.3588218E-2,2.7924156E-1,-3.825327E-2,1.2394017E-2],"split_indices":[1,0,1,0,0],"split_type":[0,0,0,0,0],"sum_hessian":[3.1903713E0,1.0021389E0,2.1882324E0,1.0062399E0,1.1819927E0],"tree_param":{"num_deleted":"0","num_feature":"2","num_nodes":"5","size_leaf_vector":"1"}},{"base_weights":[-5.900724E-3,2.1830035E-2,-1.5340122E-2],"categories":[],"categories_nodes":[],"categories_segments":[],"categories_sizes":[],"default_left":[0,0,0],"id":76,"left_children":[1,-1,-1],"loss_changes":[1.7209533E-1,0E0,0E0],"parents":[2147483647,0,0],"right_children":[2,-1,-1],"split_conditions":[-1.1316841E-1,2.1830035E-2,-1.5340122E-2],"split_indices":[1,0,0],"split_type":[0,0,0],"sum_hessian":[3.1913748E0,1.0759424E0,2.1154323E0],"tree_param":{"num_deleted":"0","num_feature":"2","num_nodes":"3","size_leaf_vector":"1"}},{"base_weights":[-3.7815922E-3,2.06471E-2,-1.43227605E-2],"categories":[],"categories_nodes":[],"categories_segments":[],"categories_sizes":[],"default_left":[0,0,0],"id":77,"left_children":[1,-1,-1],"loss_changes":[1.5245803E-1,0E0,0E0],"parents":[2147483647,0,0],"right_children":[2,-1,-1],"split_conditions":[-1.1316841E-1,2.06471E-2,-1.43227605E-2],"split_indices":[1,0,0],"split_type":[0,0,0],"sum_hessian":[3.1913486E0,1.080919E0,2.1104295E0],"tree_param":{"num_deleted":"0","num_feature":"2","num_nodes":"3","size_leaf_vector":"1"}},{"base_weights":[-1.9206433E-3,-5.0071597E-2,3.1148681E-2],"categories":[],"categories_nodes":[],"categories_segments":[],"categories_sizes":[],"default_left":[0,0,0],"id":78,"left_children":[1,-1,-1],"loss_changes":[8.1125927E-1,0E0,0E0],"parents":[2147483647,0,0],"right_children":[2,-1,-1],"split_conditions":[4.932678E-1,-5.0071597E-2,3.1148681E-2],"split_indices":[0,0,0],"split_type":[0,0,0],"sum_hessian":[3.1918306E0,1.0010246E0,2.1908062E0],"tree_param":{"num_deleted":"0","num_feature":"2","num_nodes":"3","size_leaf_vector":"1"}},{"base_weights":[-6.583354E-3,2.0245604E-2,-1.4382714E-2],"categories":[],"categories_nodes":[],"categories_segments":[],"categories_sizes":[],"default_left":[0,0,0],"id":79,"left_children":[1,-1,-1],"loss_changes":[1.4759402E-1,0E0,0E0],"parents":[2147483647,0,0],"right_children":[2,-1,-1],"split_conditions":[-1.1316841E-1,2.0245604E-2,-1.4382714E-2],"split_indices":[1,0,0],"split_type":[0,0,0],"sum_hessian":[3.1295924E0,1.0520432E0,2.0775492E0],"tree_param":{"num_deleted":"0","num_feature":"2","num_nodes":"3","size_leaf_vector":"1"}},{"base_weights":[-4.519639E-3,1.9513194E-2,-1.320526E-1,-3.526437E-2,1.3972086E-2],"categories":[],"categories_nodes":[],"categories_segments":[],"categories_sizes":[],"default_left":[0,0,0,0,0],"id":80,"left_children":[1,-1,3,-1,-1],"loss_changes":[1.3093354E-1,0E0,2.3612273E-1,0E0,0E0],"parents":[2147483647,0,0,2,2],"right_children":[2,-1,4,-1,-1],"split_conditions":[-1.7417273E-1,1.9513194E-2,3.4793448E-1,-3.526437E-2,1.3972086E-2],"split_indices":[1,0,1,0,0],"split_type":[0,0,0,0,0],"sum_hessian":[3.1302812E0,1.0135413E0,2.1167397E0,1.0041412E0,1.1125987E0],"tree_param":{"num_deleted":"0","num_feature":"2","num_nodes":"5","size_leaf_vector":"1"}},{"base_weights":[-4.535572E-3,1.8226083E-2,-1.2849823E-2],"categories":[],"categories_nodes":[],"categories_segments":[],"categories_sizes":[],"default_left":[0,0,0],"id":81,"left_children":[1,-1,-1],"loss_changes":[1.1910742E-1,0E0,0E0],"parents":[2147483647,0,0],"right_children":[2,-1,-1],"split_conditions":[-1.1316841E-1,1.8226083E-2,-1.2849823E-2],"split_indices":[1,0,0],"split_type":[0,0,0],"sum_hessian":[3.1323261E0,1.0618944E0,2.0704317E0],"tree_param":{"num_deleted":"0","num_feature":"2","num_nodes":"3","size_leaf_vector":"1"}},{"base_weights":[-2.7969975E-3,1.7772567E-2,-1.17198765E-1,-3.294354E-2,1.3742945E-2],"categories":[],"categories_nodes":[],"categories_segments":[],"categories_sizes":[],"default_left":[0,0,0,0,0],"id":82,"left_children":[1,-1,3,-1,-1],"loss_changes":[1.06195986E-1,0E0,2.1457288E-1,0E0,0E0],"parents":[2147483647,0,0,2,2],"right_children":[2,-1,4,-1,-1],"split_conditions":[-2.0644575E-1,1.7772567E-2,3.1604788E-1,-3.294354E-2,1.3742945E-2],"split_indices":[1,0,1,0,0],"split_type":[0,0,0,0,0],"sum_hessian":[3.1335607E0,1.000802E0,2.1327586E0,1.0029742E0,1.1297845E0],"tree_param":{"num_deleted":"0","num_feature":"2","num_nodes":"5","size_leaf_vector":"1"}},{"base_weights":[-2.887467E-3,-1.2658998E-2,1.5320159E-2],"categories":[],"categories_nodes":[],"categories_segments":[],"categories_sizes":[],"default_left":[0,0,0],"id":83,"left_children":[1,-1,-1],"loss_changes":[9.926077E-2,0E0,0E0],"parents":[2147483647,0,0],"right_children":[2,-1,-1],"split_conditions":[1.486271E-1,-1.2658998E-2,1.5320159E-2],"split_indices":[1,0,0],"split_type":[0,0,0],"sum_hessian":[3.1363409E0,1.8551221E0,1.2812188E0],"tree_param":{"num_deleted":"0","num_feature":"2","num_nodes":"3","size_leaf_vector":"1"}},{"base_weights":[-1.9680185E-3,1.7131228E-2,-1.1831238E-2],"categories":[],"categories_nodes":[],"categories_segments":[],"categories_sizes":[],"default_left":[0,0,0],"id":84,"left_children":[1,-1,-1],"loss_changes":[1.0356332E-1,0E0,0E0],"parents":[2147483647,0,0],"right_children":[2,-1,-1],"split_conditions":[-1.1316841E-1,1.7131228E-2,-1.1831238E-2],"split_indices":[1,0,0],"split_type":[0,0,0],"sum_hessian":[3.1316576E0,1.0682198E0,2.0634377E0],"tree_param":{"num_deleted":"0","num_feature":"2","num_nodes":"3","size_leaf_vector":"1"}},{"base_weights":[-4.99311E-4,-1.2171608E-2,1.51228085E-2],"categories":[],"categories_nodes":[],"categories_segments":[],"categories_sizes":[],"default_left":[0,0,0],"id":85,"left_children":[1,-1,-1],"loss_changes":[9.442335E-2,0E0,0E0],"parents":[2147483647,0,0],"right_children":[2,-1,-1],"split_conditions":[1.486271E-1,-1.2171608E-2,1.51228085E-2],"split_indices":[1,0,0],"split_type":[0,0,0],"sum_hessian":[3.1331475E0,1.8516449E0,1.2815027E0],"tree_param":{"num_deleted":"0","num_feature":"2","num_nodes":"3","size_leaf_vector":"1"}},{"base_weights":[2.4865338E-4,1.6863285E-2,-1.1374782E-2],"categories":[],"categories_nodes":[],"categories_segments":[],"categories_sizes":[],"default_left":[0,0,0],"id":86,"left_children":[1,-1,-1],"loss_changes":[9.843241E-2,0E0,0E0],"parents":[2147483647,0,0],"right_children":[2,-1,-1],"split_conditions":[-1.1316841E-1,1.6863285E-2,-1.1374782E-2],"split_indices":[1,0,0],"split_type":[0,0,0],"sum_hessian":[3.1286767E0,1.0695554E0,2.0591211E0],"tree_param":{"num_deleted":"0","num_feature":"2","num_nodes":"3","size_leaf_vector":"1"}},{"base_weights":[1.5397355E-3,-1.1720688E-2,1.4910168E-2],"categories":[],"categories_nodes":[],"categories_segments":[],"categories_sizes":[],"default_left":[0,0,0],"id":87,"left_children":[1,-1,-1],"loss_changes":[8.98484E-2,0E0,0E0],"parents":[2147483647,0,0],"right_children":[2,-1,-1],"split_conditions":[1.486271E-1,-1.1720688E-2,1.4910168E-2],"split_indices":[1,0,0],"split_type":[0,0,0],"sum_hessian":[3.1302743E0,1.8484738E0,1.2818004E0],"tree_param":{"num_deleted":"0","num_feature":"2","num_nodes":"3","size_leaf_vector":"1"}},{"base_weights":[2.149955E-3,1.658606E-2,-1.095302E-2],"categories":[],"categories_nodes":[],"categories_segments":[],"categories_sizes":[],"default_left":[0,0,0],"id":88,"left_children":[1,-1,-1],"loss_changes":[9.360424E-2,0E0,0E0],"parents":[2147483647,0,0],"right_children":[2,-1,-1],"split_conditions":[-1.1316841E-1,1.658606E-2,-1.095302E-2],"split_indices":[1,0,0],"split_type":[0,0,0],"sum_hessian":[3.1260488E0,1.070977E0,2.0550718E0],"tree_param":{"num_deleted":"0","num_feature":"2","num_nodes":"3","size_leaf_vector":"1"}},{"base_weights":[3.284847E-3,-1.1301468E-2,1.4686005E-2],"categories":[],"categories_nodes":[],"categories_segments":[],"categories_sizes":[],"default_left":[0,0,0],"id":89,"left_children":[1,-1,-1],"loss_changes":[8.552128E-2,0E0,0E0],"parents":[2147483647,0,0],"right_children":[2,-1,-1],"split_conditions":[1.486271E-1,-1.1301468E-2,1.4686005E-2],"split_indices":[1,0,0],"split_type":[0,0,0],"sum_hessian":[3.1277437E0,1.8456082E0,1.2821356E0],"tree_param":{"num_deleted":"0","num_feature":"2","num_nodes":"3","size_leaf_vector":"1"}},{"base_weights":[3.7697204E-3,1.6300999E-2,-1.0562352E-2],"categories":[],"categories_nodes":[],"categories_segments":[],"categories_sizes":[],"default_left":[0,0,0],"id":90,"left_children":[1,-1,-1],"loss_changes":[8.905217E-2,0E0,0E0],"parents":[2147483647,0,0],"right_children":[2,-1,-1],"split_conditions":[-1.1316841E-1,1.6300999E-2,-1.0562352E-2],"split_indices":[1,0,0],"split_type":[0,0,0],"sum_hessian":[3.1237237E0,1.0724556E0,2.0512683E0],"tree_param":{"num_deleted":"0","num_feature":"2","num_nodes":"3","size_leaf_vector":"1"}},{"base_weights":[4.770528E-3,-1.0909754E-2,1.4451454E-2],"categories":[],"categories_nodes":[],"categories_segments":[],"categories_sizes":[],"default_left":[0,0,0],"id":91,"left_children":[1,-1,-1],"loss_changes":[8.141301E-2,0E0,0E0],"parents":[2147483647,0,0],"right_children":[2,-1,-1],"split_conditions":[1.486271E-1,-1.0909754E-2,1.4451454E-2],"split_indices":[1,0,0],"split_type":[0,0,0],"sum_hessian":[3.125519E0,1.8430474E0,1.2824715E0],"tree_param":{"num_deleted":"0","num_feature":"2","num_nodes":"3","size_leaf_vector":"1"}},{"base_weights":[5.14944E-3,1.6010415E-2,-1.01988185E-2],"categories":[],"categories_nodes":[],"categories_segments":[],"categories_sizes":[],"default_left":[0,0,0],"id":92,"left_children":[1,-1,-1],"loss_changes":[8.475513E-2,0E0,0E0],"parents":[2147483647,0,0],"right_children":[2,-1,-1],"split_conditions":[-1.1316841E-1,1.6010415E-2,-1.01988185E-2],"split_indices":[1,0,0],"split_type":[0,0,0],"sum_hessian":[3.121705E0,1.0739938E0,2.0477111E0],"tree_param":{"num_deleted":"0","num_feature":"2","num_nodes":"3","size_leaf_vector":"1"}},{"base_weights":[6.0275127E-3,-1.0544389E-2,1.4210007E-2],"categories":[],"categories_nodes":[],"categories_segments":[],"categories_sizes":[],"default_left":[0,0,0],"id":93,"left_children":[1,-1,-1],"loss_changes":[7.753071E-2,0E0,0E0],"parents":[2147483647,0,0],"right_children":[2,-1,-1],"split_conditions":[1.486271E-1,-1.0544389E-2,1.4210007E-2],"split_indices":[1,0,0],"split_type":[0,0,0],"sum_hessian":[3.1235704E0,1.8407273E0,1.2828432E0],"tree_param":{"num_deleted":"0","num_feature":"2","num_nodes":"3","size_leaf_vector":"1"}},{"base_weights":[6.3093132E-3,1.571435E-2,-9.8595945E-3],"categories":[],"categories_nodes":[],"categories_segments":[],"categories_sizes":[],"default_left":[0,0,0],"id":94,"left_children":[1,-1,-1],"loss_changes":[8.0684535E-2,0E0,0E0],"parents":[2147483647,0,0],"right_children":[2,-1,-1],"split_conditions":[-1.1316841E-1,1.571435E-2,-9.8595945E-3],"split_indices":[1,0,0],"split_type":[0,0,0],"sum_hessian":[3.1199265E0,1.0755417E0,2.0443847E0],"tree_param":{"num_deleted":"0","num_feature":"2","num_nodes":"3","size_leaf_vector":"1"}},{"base_weights":[7.0846207E-3,-1.0202753E-2,1.3963438E-2],"categories":[],"categories_nodes":[],"categories_segments":[],"categories_sizes":[],"default_left":[0,0,0],"id":95,"left_children":[1,-1,-1],"loss_changes":[7.386033E-2,0E0,0E0],"parents":[2147483647,0,0],"right_children":[2,-1,-1],"split_conditions":[1.486271E-1,-1.0202753E-2,1.3963438E-2],"split_indices":[1,0,0],"split_type":[0,0,0],"sum_hessian":[3.121874E0,1.8386259E0,1.2832481E0],"tree_param":{"num_deleted":"0","num_feature":"2","num_nodes":"3","size_leaf_vector":"1"}},{"base_weights":[7.285239E-3,1.583676E-2,-9.285401E-2,-2.6051927E-2,1.1059175E-2],"categories":[],"categories_nodes":[],"categories_segments":[],"categories_sizes":[],"default_left":[0,0,0,0,0],"id":96,"left_children":[1,-1,3,-1,-1],"loss_changes":[7.701348E-2,0E0,1.3479888E-1,0E0,0E0],"parents":[2147483647,0,0,2,2],"right_children":[2,-1,4,-1,-1],"split_conditions":[-2.0644575E-1,1.583676E-2,3.6452505E-1,-2.6051927E-2,1.1059175E-2],"split_indices":[1,0,1,0,0],"split_type":[0,0,0,0,0],"sum_hessian":[3.1184008E0,1.0112424E0,2.1071584E0,1.0013685E0,1.1057898E0],"tree_param":{"num_deleted":"0","num_feature":"2","num_nodes":"5","size_leaf_vector":"1"}},{"base_weights":[6.7365477E-3,-5.013398E-2,3.3093788E-2],"categories":[],"categories_nodes":[],"categories_segments":[],"categories_sizes":[],"default_left":[0,0,0],"id":97,"left_children":[1,-1,-1],"loss_changes":[8.4495497E-1,0E0,0E0],"parents":[2147483647,0,0],"right_children":[2,-1,-1],"split_conditions":[4.932678E-1,-5.013398E-2,3.3093788E-2],"split_indices":[0,0,0],"split_type":[0,0,0],"sum_hessian":[3.1224303E0,1.0034603E0,2.1189702E0],"tree_param":{"num_deleted":"0","num_feature":"2","num_nodes":"3","size_leaf_vector":"1"}},{"base_weights":[1.7101928E-3,1.5412921E-2,-1.0241524E-2],"categories":[],"categories_nodes":[],"categories_segments":[],"categories_sizes":[],"default_left":[0,0,0],"id":98,"left_children":[1,-1,-1],"loss_changes":[8.021326E-2,0E0,0E0],"parents":[2147483647,0,0],"right_children":[2,-1,-1],"split_conditions":[-1.1316841E-1,1.5412921E-2,-1.0241524E-2],"split_indices":[1,0,0],"split_type":[0,0,0],"sum_hessian":[3.0595622E0,1.0468924E0,2.0126696E0],"tree_param":{"num_deleted":"0","num_feature":"2","num_nodes":"3","size_leaf_vector":"1"}},{"base_weights":[2.8052402E-3,1.459217E-2,-9.565889E-3],"categories":[],"categories_nodes":[],"categories_segments":[],"categories_sizes":[],"default_left":[0,0,0],"id":99,"left_children":[1,-1,-1],"loss_changes":[7.1190566E-2,0E0,0E0],"parents":[2147483647,0,0],"right_children":[2,-1,-1],"split_conditions":[-1.1316841E-1,1.459217E-2,-9.565889E-3],"split_indices":[1,0,0],"split_type":[0,0,0],"sum_hessian":[3.0613484E0,1.0513073E0,2.010041E0],"tree_param":{"num_deleted":"0","num_feature":"2","num_nodes":"3","size_leaf_vector":"1"}}]},"name":"gbtree"},"learner_model_param":{"base_score":"[2.95E-1]","boost_from_average":"1","num_class":"0","num_feature":"2","num_target":"1"},"objective":{"name":"binary:logistic","reg_loss_param":{"scale_pos_weight":"1"}}},"version":[3,2,0]}